function [y1] = neuronio2(x1)
%MYNEURALNETWORKFUNCTION neural network simulation function.
%
% Generated by Neural Network Toolbox function genFunction, 17-Apr-2017 18:17:10.
%
% [y1] = myNeuralNetworkFunction(x1) takes these arguments:
%   x = 12xQ matrix, input #1
% and returns:
%   y = 1xQ matrix, output #1
% where Q is the number of samples.

%#ok<*RPMT0>

% ===== NEURAL NETWORK CONSTANTS =====

% Input 1
x1_step1_xoffset = [1;3.8;0.08;0;0.6;0.009;1;6;0.98711;2.72;0.22;8];
x1_step1_gain = [2;0.165289256198347;1.33333333333333;1.6260162601626;0.0306748466257669;4.84261501210654;0.00694444444444444;0.00460829493087558;38.5579332947754;1.55038759689923;1.42857142857143;0.289855072463768];
x1_step1_ymin = -1;

% Layer 1
b1 = [-2.0458385192802635;1.964624683599975;1.946107066943086;-1.9142416361231327;-1.8841937677618266;-1.8493761639475461;1.8462239694788194;-1.8246857282155051;-1.6976666688886297;-1.7825496005468857;-1.5415576677344094;1.5853134457393698;-1.4608196393458126;1.3208963236842985;1.4402899812098611;1.9194529198745824;-1.3143642437651961;-1.4887484604474848;1.3622037636571629;1.2415093326243929;-1.115334952817095;1.1929127125360965;-1.259619004342883;1.1019948470235825;-1.1137288031636607;1.1501766554420474;-1.0485573825175725;0.90861950866446028;1.1316128656901414;-0.79790353291922289;0.80700613029292789;-0.7544896816331782;-0.70246770715052198;-0.57150841740680869;0.98320324171813067;0.64524749638400047;0.76124920137238861;-0.44863352412321961;0.72293936520482649;-0.76689388679043913;-0.24629247696016446;-0.51019475046706297;-0.53033264038633487;0.17432348637993275;-0.3046993389072884;-0.066647270047513113;-0.24102279258895132;0.10832311931401893;-0.20736719798086958;0.036699630172548584;0.10728458865727762;0.18965197853266663;0.15834294532482207;-0.28720926439749533;-0.32498731842581963;0.19818246746376714;0.36095477241813811;-0.27088088568598451;0.3917290410317637;-0.33028243360685861;-0.34934122907989845;0.76958665464517162;-0.41067654517235025;0.37398417039166526;-0.69992046914529682;0.6523579907437802;0.70857381535158703;-0.62394844405665417;0.70245975673883876;0.92171229105375896;-0.98631075801231882;0.90880308509704244;-0.95972923743331862;1.149611642827026;-1.5599928834983805;0.95273824522616546;1.0172571961083909;-0.75874188434804146;0.90565372667932986;-1.210488399134394;1.3677021160933467;1.2970967826068163;1.1526863454312108;1.2148730426143803;1.4532964194420726;1.5522543548154317;1.7271999352525369;-1.5454116274873675;1.5237031050768723;1.7403300195300704;1.6215933979071806;-2.0823536266665017;1.7591119464295693;-1.7603575737505142;-1.9556289393597366;1.9317173077490628;1.7060725029897261;-1.9638013685500844;2.1250059059948629;-2.1548215117055731];
IW1_1 = [0.64799281342213833 0.96023327379026591 -1.0503949463869677 0.22531827288147777 0.86569858527188881 0.57736239010397605 0.08161688290107437 0.3027522751083479 -0.60926266553436714 0.097884952147164028 -0.4031098195770863 -0.078994697086633925;-0.009927554325673181 -0.54792747252734275 0.062292615334560514 -0.18155991704361604 1.1175468556299186 0.042929003878682315 0.70643263958473201 -0.48222126247480296 -0.75159543649097937 1.2839828128249076 -0.91180746379062527 1.0171421721019549;-0.80783984655090235 0.2094290591769313 -0.56972280123894892 -0.80681181679781644 -0.58153041386583071 -0.63272413974360531 -0.44759730390150676 0.22645345759944974 -0.87628911821059396 0.20088661955088638 -0.54579195371725342 0.76414216194249862;1.1131528718377111 -0.08713643792704244 0.14734757874680246 0.087571387904283066 1.0767659663120075 0.74950924070743485 0.13623534234876822 0.21053756789813441 -0.56931556300863084 0.50530529122640544 -0.60368421849411191 -0.49990411013153174;0.52476460451084861 -0.1961158340697885 -0.1571645473940001 0.62205796384292433 -0.86182493684137562 0.47943816981876619 0.63054110418525899 0.03976338050545869 -0.8052147905570386 -0.33765039690867293 1.2636111505232703 0.13617162369450636;0.3273726133009206 1.0201788777382781 0.64438074554823355 0.58724197211211859 0.79429495765277891 -0.85881391174957267 -0.25895792875052287 0.61416776256257455 -0.46626780105017634 -0.075547086003144595 -0.35223278675396241 -1.1293687760128055;-0.19139240152521036 -0.72728454606141391 -0.30335859868646259 0.015492746831542913 -0.88483267682136857 0.64286683396189437 0.64574438456060201 -0.22745628551003641 0.75349915194010453 0.50149723079397823 -0.3240069818187879 -0.89724595726541623;0.65135022726427516 0.14500743051752515 -0.051382599324193784 -0.10095527422030065 0.42879021134732004 -0.91061868186814288 -0.67134252041963605 -0.36074329641608921 -1.1891864218227131 1.3689165106807288 -0.73742783488091979 -0.39840410450278485;0.73898623942201092 0.80772306978934783 0.73756391411751365 0.24128305551421433 0.26679720344425645 0.69202384172100384 -0.56101393287611834 -0.35481700553265844 0.72647366834352489 -0.03754205429550718 0.85170689868390737 0.50117354628398614;0.72176136033279548 -0.088525163016269365 -1.0338449075945775 -0.96465375005221676 0.59959639378041751 0.76654005130997882 -0.5903589579322237 -0.51812477856298034 0.058498260354577461 0.02166942240289781 -0.42321017636905933 -0.66163980081996321;1.0232714005953072 -1.3603515912319628 -0.94469974860401462 0.53771168309623751 0.57055024379357411 -0.61905336447880899 0.1571465925037272 0.50043777081213525 0.057895606173401511 -0.37114063173823442 0.38451758760396459 0.097762375673206864;-0.90389182532490719 -0.29301181426553652 0.47935856602082666 0.52622705805335701 -0.63644352184575703 0.72198148621143821 -0.13981964710811029 -1.6515975938076592 -0.58708268772624106 0.88051376739348042 -0.60586012952759016 -0.65760333843462782;0.63973476981440314 0.84719520654923186 -0.5575412243938993 0.03711446945041906 -0.052011723446110186 -0.88629549335671309 1.0251046162379982 -0.41740672386136252 -0.96499964436551511 -0.15874129417762162 -0.011007939570923442 0.69225472701756641;0.32574754553974439 -0.55220895001108916 2.4192184323456098 0.45592021729204413 -0.34915186646056862 -1.0939153829088764 -0.57770460237177512 -1.4682853571400805 -1.0579986772259724 0.059035309146171985 0.50605787358584586 1.1730993617829759;-0.37170512791799931 0.61589924353896597 -0.75801582368829168 0.59630877784640113 0.20513997682577012 -1.1710844441292305 0.22842271605599337 -0.44735453752602444 -0.49331262272132426 -0.27250473963813843 -0.94888770270757195 -0.061623778201994051;-0.82514567955293461 0.56653196637181436 0.11223823208230814 0.58151971714449047 0.081004019412560524 0.36720158111237572 -0.19278201993951083 -1.1063721548600189 0.74045185430535776 -1.2169727871663114 0.81009311170630638 -0.42909000579810325;0.56290526098158122 -0.66085662729703032 0.15238225630999591 0.73528489960644439 -0.37013350352846169 -0.52711404897051539 -0.24968745237395937 0.50881781232401502 0.95391790799940746 -0.20349460875041231 0.79536657123139176 -1.0603561242724024;0.95717571454474848 0.70915526172722132 0.38391256992609935 -0.23722184604988897 0.19479100789216011 1.0111566499073503 0.27185891215677566 0.31881731972247107 -1.2939554971213341 0.61338357817535316 -0.51174621246091623 -1.0307993930316008;-1.0649995462599269 -0.85090265379686558 -0.40377355118925928 -0.41803318370874915 0.56634890282431105 0.13078793916008896 1.1883052893621591 0.35799585872181089 -0.74698247924493599 0.036474011302466969 -1.1317884784266745 -0.36552929880609042;-0.58066230363934201 0.68228344531167684 -0.63276600519867987 0.1728835600259864 -0.723025301630146 -0.42086507415075008 -0.1561747266872307 -0.26111703245106405 0.41517125163682211 0.57151979331176916 -1.0526432020385614 1.0160586050838667;1.0884345847930634 -0.29321187661506154 -0.23691174113460156 -0.20483770222450143 0.57191150968095417 0.97135609863548611 -0.76929331536558443 -0.17208378282226225 -0.078446891775317037 -0.29866660375023252 0.24434778801327098 0.24526446257655732;-0.82676488675007387 0.45711098844611481 0.55140207936545627 -0.2742445844971359 0.58125421326507654 0.72103703976229871 0.88259131556934678 -0.40668212756011485 -0.65818447232794997 0.61328351877940068 1.0155805897087893 0.31367023900746482;0.59473792186857521 -0.089652768057202986 0.79189899783898821 -0.480190810601757 0.067680434949035514 0.097707519590786746 -0.58339433768973459 0.712291974488513 0.73624474216299352 0.52443172042644015 -0.19574706808540901 -0.78603823674174778;-0.46202427744481062 0.89052034123378032 0.44306655688605551 0.32016986614791182 -0.97416676928161483 -1.399233975900535 -0.084947382063647048 -0.19462601494757206 0.16111519775791774 1.2045202939220627 -0.45260416291130701 -0.28339877509313499;1.0038794023834696 0.97727978879342148 0.034560419747481815 -0.82748492726055234 0.52076049367008048 -0.9067677708316898 1.2636857168124283 -0.30387918876665237 -0.064594425289599494 -0.14168153072885448 -0.79018850848704814 0.86087001596871249;-0.55119108958936569 -0.80528049234026866 0.69315057395879986 -0.79114806382111247 -0.36615754453469634 0.26294774378850144 -0.56267987962533894 0.90832614198353001 -0.55160858850797378 0.17527691052728619 -0.19792901064372478 0.13543043885917536;0.46662166651351944 0.82772753597891657 0.67356603080427468 -0.17273036769533398 -0.38243275874691202 0.45394636281531442 0.69986164625636293 -0.98354929078635278 -0.6278448825845212 -0.5617483043876994 0.16479095421159928 0.8273109392236182;-1.217935384099079 -0.59602883038398957 -0.042448796330624233 -0.55054994321155526 0.4749189357352766 0.7336826901216007 0.6542680463389472 -0.54220104168020411 0.93468308676976064 0.083131242732845279 0.49845995359095335 0.16942714883601828;-0.55680599149034637 -0.15593265851837063 -0.24712492931945645 0.15159408410517086 0.64681988587109551 1.144337698941043 0.80821151300747784 -0.70104151966779904 0.68761144738927948 -0.07826561483890046 -0.50181403753251475 0.35280885431760567;0.78606077213032755 0.059268509528280104 -0.72238576596015702 -0.46101154291953617 -0.51770350676683963 -0.17333867404459805 -0.14074564802849454 -0.37939298604813743 0.83669458090266857 0.79468940515902775 0.68608783702835441 0.83497603380897967;0.024553064835350285 0.066030250950418132 -1.0973103370986663 0.32663311516870258 0.73276429513891639 -0.79626138678029068 0.70123325568500638 -0.60237486061606216 -0.62955763467720671 -0.46570928533421657 0.093788640111156563 0.35006002988060497;-0.036684116624931484 0.54914532967891827 0.096104405684541774 -0.44806099910798675 -0.94466283565116604 -0.34844520896294406 -0.49549236866496721 0.56383944929325691 -0.35585621069565215 0.14285948558777689 -0.88969934150574836 1.2064210476975736;0.53112863931988485 0.50998797140141583 0.41048347181269751 0.5410691039332497 0.86170391498382526 0.8392975631569648 1.064860671677877 0.30598023049363332 0.55738505129159088 -0.036857636205199239 -0.20188923440935055 0.55510682540467604;0.88913762334474344 0.86005586478914264 0.76141509768816307 0.47994517571806611 0.92189958601503175 0.29908717786920808 0.83903250885586111 1.0760225804922094 -0.59643807868196441 -0.63541017254846488 0.31146666901540659 -0.65716748103639389;-0.66424815312918617 0.013177784002695928 0.37659941439139055 -0.72730130537584592 -0.31377404789078184 0.039122201208746737 0.49799756865430961 0.077136403185669389 -0.0939564827072151 0.13020598223881708 0.83899959477917907 -0.4527369649249206;-0.99166331008015018 0.22309108083242474 -0.66871706114044915 -0.35684283708863757 -0.77175023390030417 0.90091682286846542 0.84402507855163866 0.011232168844046944 -0.24919076827844747 -0.42137446760104974 -0.8286859158502885 -0.79796762171898328;-0.57221728984482412 1.0449509249905136 -0.19314592073095693 -0.91389963113652017 -0.44237128698626227 -0.49121903532047978 0.058315383213183664 0.33204703140553743 -0.03442908345595512 0.51549124910841881 1.0875326659817444 -0.46578957122062742;0.5137246796467263 -0.57771796293601574 -0.71715720153597873 -0.56409724473916056 -0.63115310801474067 -0.33540581770200778 -0.098298951285222744 0.73659432383635715 -0.73622649429872433 -1.0806651327709622 0.75787090695452564 -0.037113443632500812;-0.81738244628238199 0.50881161222346694 -0.84640593684970222 0.46068578234972346 0.70758781533784365 -0.39291656044080825 1.1271060932152168 0.15529830215030568 -0.80905724381036725 0.59741339594313891 0.086381584340149004 1.1176123694527913;0.19475147175174662 -0.24271053639333789 -1.0821859938455156 -0.95998797670467462 0.01959817128722495 0.81577984375565082 0.39848234864080018 -0.27777489919821396 0.071751427420063393 0.8384207570819201 0.29462836988246499 0.95569857133556946;0.023968455393608184 1.5029862974258643 -0.87235207972533746 0.2304891274914983 -0.022406989258223899 0.83557932216762731 0.18091268132417432 -0.033347264443177746 0.089917558654995844 -1.4734293543373014 -0.73514403454108113 0.24387042016533644;0.71283075106891847 0.32754516650777693 -0.21924851843635801 -0.36420491992120235 0.50997691602873019 0.75600915643330147 0.28752815239918522 0.66038457469799372 -0.41218354107577665 0.42859609583808789 0.08012694166644492 0.1953077379459088;0.98997452784764617 -0.12532394340979183 -0.74659142555344205 -0.72564703957616472 -0.75755620183032335 -1.1156389585357747 0.049900873911516645 -0.1078482902674975 -0.38826224834281764 0.88952484137808319 -0.8853836342564686 -0.29212117835101648;0.17125582823327157 1.3632695797423262 -0.3132981945784426 0.57762184510881631 -0.47658423424822255 0.6129964372641229 0.35666047383010363 -1.0121362070957429 -0.2700089027078702 0.55640032926326422 0.98144910652862716 0.032415101479383812;0.13202989833580103 1.1284343458027299 -0.29110139021218018 0.72698414919404364 -0.38520145144205881 0.10282045823305455 -0.66372846366464899 -0.068884539538849654 0.97626154228864437 0.92285128516651516 -0.55633265471650994 0.14780464987367628;0.2564528574884411 0.25474988749180394 0.526220201483109 -0.48442556143125243 -0.46504684928244339 -0.12848642268371163 -0.12659033439373757 1.3363176920516355 -0.1040901455501633 0.74660884164040275 0.07373278806612131 0.34707175065550422;0.78849861006160693 -0.27067605716285847 -0.90920258987215397 -0.52119587016741153 -0.51107700893601182 -0.2786574969059345 0.60327860821578172 0.89629922709039656 0.68477042141054167 0.10012891759638778 0.66796247204960302 0.21816811395870908;-0.76241423394908425 -0.90375971928463239 0.41634992148236438 0.096847468854657753 -0.3933756500642861 0.39554495221438235 0.71978423243288947 -0.71252487044779089 -0.43257979447672834 0.52429384642940369 0.15647099682607135 -0.94680320261117534;0.74638984914422057 -1.1843459714794926 0.88735773086707914 -0.5577359517515027 -0.60867564414865838 0.14237523099350427 -0.30174843863299144 -0.35277613545320363 -0.049212921609742957 -0.68913466198127582 0.068191580369024576 0.0030287454867434322;0.98463388622341597 -0.34923285212158889 0.13486820502747224 0.75608272736339388 -0.58108255918198004 0.13369081461858534 0.92561962427458933 0.68640419026674393 -0.68517102540739672 -0.74076429510138775 -0.51466715934601814 -0.44348617343671598;0.8291274312678798 -0.74000859992496459 -0.10485233929547992 -0.49287386697096697 -0.33661434849697991 0.72652169354289542 -0.36884212928890675 -0.78185099057496366 0.058357239300441718 0.76183122594243491 0.076993412877255543 1.1930291816396312;-0.23254539284008557 -0.57395904239011319 -0.21242904561792525 0.94725892333880612 1.1818598473815425 -0.85980905353932413 0.81586718527360236 -0.47310899537547357 0.36013452519405692 -0.20017337003321847 0.80676155200317246 0.87768518379778759;0.38340540862374428 -0.39307686291525312 0.79826423644588673 0.42697618806631227 0.59392309147747857 0.85987209654167118 -0.60609256904429665 -0.74994729206223398 0.64917511483620927 -0.37643878165038197 0.94590278471789069 0.72557869389767227;-0.6721877395948439 0.30972565302018751 0.32125652725818077 0.45159457055751512 0.39712486724033014 -0.49856014789219322 0.29162211200101645 -1.3168264862777552 1.0073033949338834 -1.1664809857790073 0.36343817238267173 -0.81065958941732175;-0.61296394802892296 -0.19365183325465873 -1.959604602088066 0.028557986138181578 0.027658743857561625 -0.38017280600876802 0.7982859947759664 -0.49324737374259214 0.52454658817009325 -0.71724772993856667 -0.44829029697379064 0.11071687534669176;1.1146283586550148 -0.084082506695561998 -0.37255536138059064 0.95207367654637187 -0.66483688345961578 0.53207307018887995 -0.32566323491535115 -0.0075281871741008765 0.27865027608971477 -0.24824433315028818 1.1668370775062009 0.036691875222602012;0.32184506391082113 1.1112886365955288 -0.54750386265647055 -0.723214941982119 0.036918152622191391 -0.64374856537428726 -0.36437498340427965 0.12005868270313839 0.64487596374993694 0.73183270315374827 0.030851017631121563 -1.366610583922212;-0.79978736951425067 -0.52159491785188172 -1.0201522906475164 -0.59165904875556063 -0.67894862000692779 0.92643047394542288 0.94207346771469735 0.11588022284592696 0.026881029263654949 0.4821016725058338 -0.17584778554738295 -1.0383886646309974;0.5500493666213816 -0.32853342793791912 0.15712881110664245 0.064336859282568812 0.81788062453270427 0.60509692722826658 -0.32994283850354972 -0.42937665759842836 -0.42293476087431064 0.97854922277519252 -0.38954349714350267 -1.0751064418562841;-0.33641061280220119 1.309835014238043 0.061529693646529521 -0.97313693384372946 0.26501501202391831 0.8984720108688099 0.70453014167265482 0.53489409969939394 -0.62615393276515785 0.19168272876630241 -0.45275430357135815 -0.5241962895193778;-0.49243279134131202 0.14936962213927241 -0.76631133142122088 -0.428232593643257 0.50591733698855923 -1.037779630682113 0.26815793865937415 -0.96769439150502179 0.33809870222044969 -0.84083312928909038 -1.015328117220518 0.99270719700927212;0.45680835774576373 1.2158976597071987 0.012127760546611311 0.67481933275471528 -0.075951647449913201 -0.78386689970733692 -0.076379968867429759 -0.6954187866862569 0.17983960933256921 0.31018530181636372 0.43097869312134418 0.69964208650623572;-0.032430675375158327 -0.17680508650774132 -0.18022439875498272 0.088576776899403548 0.40678911238515825 1.1390129076603459 -0.028959408772035049 0.64611767489071603 -0.99589083772661124 0.70507324760501244 0.9535300798451688 -0.58336306345857902;0.72010484332539892 1.4198508029985895 0.64017878601045841 -0.18565184673501495 -0.13440565697134654 0.13491705568406756 0.47471653585646423 -0.13695493767094624 0.5300946166399727 1.0749205881269523 0.95959778111409144 1.3009641910080707;-1.0980879688921967 0.17328943898544796 0.25607037580574216 -0.22567592812888873 -1.0209357258570948 -0.69385929887615716 -0.39389328627908821 -0.58604504788208911 0.63450563113965663 -0.80606398680330826 0.17393988593254478 1.1893676714623111;0.7826130290460237 -0.8063603433256209 0.76850453124339968 -0.22851134914961924 0.78841861100713595 -0.82931159273229693 0.30501669275822846 0.37057408651210422 0.56762834466144452 -0.51738056274695965 0.82859430020975322 -0.64352613892888844;0.97596057724279417 -0.26453447532799984 -0.48711252694047441 -0.22016154587941489 -0.60921489148153019 -0.77688801864275703 0.66554277168073783 0.64319696054036646 0.25241718080938153 -0.32599613876430794 -0.79217882153414354 -0.39221025940615384;-0.038522698148900893 1.0637930320870805 -0.36984142310766865 1.1746448851798574 -0.83661882767360918 -0.44792269100601201 0.60562596188273121 -1.0727820919602182 0.27545984961679582 -0.93990651630807465 0.51654364260979424 0.34904309528844035;0.13103907290790606 -0.13651816125681632 -0.55145064490140683 -0.1704154813774427 -0.32565242499093283 0.82510691062153307 -0.32622847415124129 0.21660226757145551 -0.70815443736289418 0.78638291745372724 -0.88443620690957936 -0.9691680362053382;0.13173572952422244 0.69986790012717015 1.0540800933861476 0.0714690561690033 0.49324862594463037 -0.82232933131312347 0.60630414878511207 -0.32593627531331554 -0.70001764845475389 0.24209624636612972 0.60429916933262384 -0.59627146955672816;-0.18980928788229706 -0.85649345919794029 0.86049313244757208 -0.63411579934769047 -0.35602645190671822 0.39083728050095123 -0.31421943721460854 -1.08006792493115 0.7348569607701928 -1.1144468160192482 -0.43842425408584945 0.14161600332979862;0.70008273318773384 0.23652499014646178 -0.11966611839794455 -0.95365900389191605 0.9294050432097144 0.84929402801618892 1.038569365013261 0.39573133963796475 0.68220381197941837 0.15954675896849135 0.80010982160685706 0.57773018174567914;-0.38927435520845338 0.13036286401080938 -0.088169575920648002 -0.86310294795558995 0.62989876317832072 1.0059117072728976 0.67392825910337872 0.58810660803050541 0.90738740635543746 0.033561920464749588 0.48330402636480219 0.066810327922664239;0.47636817879941024 0.58475538923300041 -0.63590581106698951 -0.85201965838576543 0.52848355598567975 0.69392975668258206 1.001173247161691 0.31642142690641406 -0.5465012940407189 -0.36488151994578166 -0.50238592103570967 -0.66644586637549696;0.21015440767722185 0.60391791758444813 -0.19432048286022496 -0.49142410432476913 0.25338562668756298 -0.592357520612669 -1.2917411450757836 -0.52549905389000595 0.48121176782057662 0.71973598600832789 -0.67486305856314244 -0.19137455334737899;0.58948575562794758 -0.54595749147194406 0.95491477327789931 -0.042701514809873012 0.6258257073846597 -0.42288073726083203 -0.7758216885332534 -0.96229037991670696 1.0512085058695408 1.4857935230108303 -0.54481129453500743 0.12845767604514124;0.24220952319825895 0.92517869501794747 1.0900837804801333 -0.66069788838820465 1.0411276500903686 -0.099566058322948334 -0.71602432138299366 0.72579316182067788 0.96993040921873608 -1.1988967799674046 -0.023748773143921549 -0.91910885198708281;-0.46148259360603799 -0.63423562080454321 1.3063349953830019 -0.37937598700376379 -0.10854715809169517 -0.21854234414690135 0.75868045380265436 0.2960607650124813 -0.15778168321309946 0.056412502306190611 -0.023733837472313078 1.36826776341974;0.20146040008236279 1.287181644881416 1.0740805604337853 0.042437245438785652 0.82021537964479485 1.0189557040270072 -0.44654944770315319 -1.0849403512621638 0.24171855150858521 -0.61323792610882844 -0.16927413612496117 -0.77250925126519443;-0.93522505928343147 -0.46030880447024791 -0.3544750735706706 0.2050986731441774 -0.25727563895982103 0.037097947526736057 -0.57843618169405209 -0.62735576478676258 0.52240432832218298 0.21749297360251862 0.62403268344256702 -0.4904529184139354;0.098695481782624134 0.26825738181974002 -1.1435141421733741 0.33842066630415746 1.1616061960913024 -0.13409939752470129 0.82313428618772655 -0.51742962828492767 0.46176630985937317 -0.29380898105475683 -0.34609736503791516 -1.0918250072449907;-0.047151337913044891 -1.122806591818835 -0.26228109602161109 0.93690668303229296 0.80859165364881824 0.55329828520057256 -0.66375405291266332 0.63795145154453659 -0.92470694361721506 0.20225749054558226 -0.26119714514477888 0.91035464979871228;1.1275319429761819 0.32156961178171695 -1.1054408861502425 -0.51799893627308058 0.72806148002972593 0.50846884437669138 0.049011341015077363 -0.099197758182699936 -0.515956979777633 0.37094380337404909 -1.4513423992941232 0.87988480666615243;1.2278827364490765 -0.39168702901497565 0.23074319905465585 -0.68669903231392793 -0.25393046254862095 0.59212059491914204 0.53847940335269695 0.77340157108929508 -0.46972292825554396 -0.30213583693188217 -0.3234710845783822 -0.92407778909627714;0.55945993204855948 0.26209046528281277 -0.57225186126654537 0.83045367769089973 0.22764189653248199 -1.3290490816972764 -0.50433146538026552 -0.82035073448180384 0.41865359075506547 0.51126450740593854 -0.34345392441420508 -0.096441382175893375;0.14452904167963665 0.67507498354270612 -0.18161635875289764 0.50397102078134437 -0.019477885710045315 0.66925252954038472 0.96455922199401745 -0.81037231444605662 -0.89527951262137773 0.11741705568278801 -0.98553107846200216 0.31475676013498122;0.72725255630636931 0.10389256930584806 -0.49476253947226251 -0.22508052980318205 0.20385512668008668 -1.4479645788277873 -0.34710775590853971 0.51198549385088288 -0.16669267034781707 0.7916914221318605 0.36034616550274096 0.35895560662362697;-0.58390609963080808 -0.59905543889369361 0.027128976208234068 -0.89675095724220322 -0.63862799905040202 0.56781906387031178 -0.56818535708537399 -0.48974177272941721 0.34693775321864478 0.40055680906592817 0.46149690378366814 -1.079159696306164;0.96650190896657295 0.65714649100128375 0.18962161765443453 -0.51761065407266527 -0.036200722835474208 0.46938113783206004 -0.92298170660160761 0.76159185638478644 0.050335727302844573 1.1386489056891571 0.7988108339181228 0.22500719461815266;0.79306873660344812 -0.79311785497609 0.64083535844788264 -0.98688531979895699 -0.072397209436326659 -0.60573739817538341 0.26647715864338656 0.3685275829491077 -0.57687594736984449 0.53642212393728672 0.098939615337921227 -0.45332720168096213;0.78996990995276772 -0.40589089378483428 -0.044014312998436486 0.17334144401705584 0.36106886558337453 0.48963556708428585 0.99370845117395501 -0.35034821499670382 -0.66151224567508948 -0.081921500023012961 0.22685950896655135 1.1863000431020749;-1.1291861614371401 0.40731707919763782 -0.37119838103019714 1.2182668217481147 -0.057224821955182484 -1.6801064568997552 0.51442975781441946 -0.68321365035239656 -0.26843735791298201 0.30131337854550888 0.17672019994035737 -0.14499244061900413;0.18081090582116696 -0.83426227151710797 -0.71918758511889935 0.90090176715435388 -0.6983351107307183 0.8864998458134945 -0.5020792839374334 0.05714591761370779 -0.29011884767174073 0.18051084355810515 -0.31836807953566792 -0.65767922853144156;0.79631954758339007 -0.22387520648011866 -0.74035527269103374 -0.41033798147883704 -0.69212442980038935 -0.21186380846491998 1.3299924386434656 0.14861052647081174 1.0604782019836598 1.9199428983493925 -0.18952023321689149 0.095066024134874055;-0.83301310142387652 -0.58046889598908702 0.80481862458731113 -0.049426223444394138 0.37947155959458578 0.42499486870824138 -0.80076568963342032 0.60443516503712347 0.40933285514585094 -0.053421337578907553 0.3798776779824205 -0.69372392441756148;0.80894824290404188 -0.19139484386676819 -0.19970997013827924 0.32407640294456141 -0.64881866786191333 0.24529091643045906 -0.36253558791386387 -0.33404168006243007 -0.73550857620044441 0.4106529640765112 -0.96659576493588784 -1.0235417864299712;0.60507851319200689 -0.032648492087282349 -0.31933563691484218 0.70510925646259304 0.11464527854116474 -1.0199636845152833 0.77481912813835085 -0.3511539371677741 0.70351565580121067 -0.5192900201730194 0.92419572984086518 0.22961734841634582;-0.339282445541358 -1.1242906189349309 -0.86366983786659668 0.9972771008893766 0.45976346588623218 -0.83997216584152079 -0.50553001658220087 1.0186778054995498 -0.49155859407431879 1.0593524433510457 -0.049699036543335684 0.0022681230116554634;0.34156310497281844 -0.37372823645201375 0.31200180799562349 0.1244438654229186 0.25575675216041799 -0.56859389411796346 -1.0290781501167368 0.80711334565285853 0.39046674583879204 -0.67019991260524669 -0.74781103502789581 -0.27633146898710148;-0.43075661072376015 0.32710946430829591 -0.35039135938011579 0.88896772055425755 -0.33443087297713964 0.6909402977988629 0.22523278514632369 0.59141930601807136 -0.23539126369936697 -0.768452264125283 0.97644995132363599 -0.35579759302993802];

% Layer 2
b2 = 0.49025421179673223;
LW2_1 = [0.16924160556766843 -1.0421283323108339 -1.1155227194745154 0.91113410557916485 0.43501111023432171 -0.7556606484527173 0.62454911812629577 -1.1413975287262754 0.31233383489422345 -0.78000783327775025 1.1621736442558996 0.95844434805150125 0.39125509046643897 -1.691928726359212 0.37412740658965982 0.89176915180523453 -0.51041542753888625 1.0541389556002239 0.86293297951814218 0.40572636568403558 0.37058449289015732 0.55108676864951589 0.58168880716692994 0.95147397420992996 0.81797064234585093 -0.61589165108452826 -0.9538621161501265 0.38794464597664985 -0.97683221323226255 -0.13513970154625465 -0.25642902188254196 -0.16898323952593311 0.52291205510213834 -0.86828583580761587 0.53041570033019714 -0.55762423401428607 0.61604085714912105 -0.39473226295293329 -0.6189684007772317 0.59641212561815349 0.59190247982254085 -0.033064989210725329 -0.92793058645312054 0.89473955751367962 -0.51590199448696306 0.44782413237935792 -0.86339530414744703 -0.011184947497976083 0.51647159212837535 0.277102157485352 -0.22516833143722781 -0.89369283457710835 -0.57709935628357434 1.0418035229646903 -0.74051982844601583 0.49573541185155029 -1.3129176248286705 0.61576566071603989 -1.0973831012307627 -0.75462482137589515 0.58533989580396517 -0.1119613290271039 -0.61431554509132458 1.2375641059724449 -0.7235193967439687 -0.63004637099118033 -0.0017384493027451167 -0.86533892827878744 0.12738124395065206 0.47022706163878153 0.52976806842903124 -0.83370278431908762 -0.19435624857870507 0.6495375818056679 1.146005805811203 0.99110790437810692 -0.33062282770759915 -0.68061743342639125 -0.68675992583644185 -0.36241156154877135 1.0318859573007726 0.79310108483835506 0.95948515865356376 0.56907668602777672 0.50587611768603036 -0.42576252878088716 0.70595464841397781 -0.45319361113957685 0.70028647222194418 0.16468706696468474 0.60312903790246875 1.3837438552458139 -0.21145681217595505 -1.093167827309923 0.17125533402086587 -1.0380609926558488 -0.63327298551842781 1.0911506766474264 -0.45770633348674039 0.7208027084794093];

% Output 1
y1_step1_ymin = -1;
y1_step1_gain = 0.333333333333333;
y1_step1_xoffset = 3;

% ===== SIMULATION ========

% Dimensions
Q = size(x1,2); % samples

% Input 1
xp1 = mapminmax_apply(x1,x1_step1_gain,x1_step1_xoffset,x1_step1_ymin);

% Layer 1
a1 = tansig_apply(repmat(b1,1,Q) + IW1_1*xp1);

% Layer 2
a2 = repmat(b2,1,Q) + LW2_1*a1;

% Output 1
y1 = mapminmax_reverse(a2,y1_step1_gain,y1_step1_xoffset,y1_step1_ymin);
end

% ===== MODULE FUNCTIONS ========

% Map Minimum and Maximum Input Processing Function
function y = mapminmax_apply(x,settings_gain,settings_xoffset,settings_ymin)
y = bsxfun(@minus,x,settings_xoffset);
y = bsxfun(@times,y,settings_gain);
y = bsxfun(@plus,y,settings_ymin);
end

% Sigmoid Symmetric Transfer Function
function a = tansig_apply(n)
a = 2 ./ (1 + exp(-2*n)) - 1;
end

% Map Minimum and Maximum Output Reverse-Processing Function
function x = mapminmax_reverse(y,settings_gain,settings_xoffset,settings_ymin)
x = bsxfun(@minus,y,settings_ymin);
x = bsxfun(@rdivide,x,settings_gain);
x = bsxfun(@plus,x,settings_xoffset);
end
